<?xml version="1.0"?>
<opencv_storage>
<cascade>
  <stageType>BOOST</stageType>
  <featureType>HAAR</featureType>
  <height>30</height>
  <width>30</width>
  <stageParams>
    <boostType>GAB</boostType>
    <minHitRate>9.9500000476837158e-01</minHitRate>
    <maxFalseAlarm>5.0000000000000000e-01</maxFalseAlarm>
    <weightTrimRate>9.4999998807907104e-01</weightTrimRate>
    <maxDepth>1</maxDepth>
    <maxWeakCount>100</maxWeakCount></stageParams>
  <featureParams>
    <maxCatCount>0</maxCatCount>
    <featSize>1</featSize>
    <mode>BASIC</mode></featureParams>
  <stageNum>8</stageNum>
  <stages>
    <!-- stage 0 -->
    <_>
      <maxWeakCount>3</maxWeakCount>
      <stageThreshold>-1.2057863473892212e+00</stageThreshold>
      <weakClassifiers>
        <_>
          <internalNodes>
            0 -1 13 8.3034083247184753e-02</internalNodes>
          <leafValues>
            -9.9749374389648438e-01 9.4117647409439087e-01</leafValues></_>
        <_>
          <internalNodes>
            0 -1 25 -1.1440670490264893e-01</internalNodes>
          <leafValues>
            8.8921201229095459e-01 -9.7802156209945679e-01</leafValues></_>
        <_>
          <internalNodes>
            0 -1 12 1.5041309408843517e-02</internalNodes>
          <leafValues>
            -9.8181444406509399e-01 7.6972895860671997e-01</leafValues></_></weakClassifiers></_>
    <!-- stage 1 -->
    <_>
      <maxWeakCount>3</maxWeakCount>
      <stageThreshold>-1.1967149972915649e+00</stageThreshold>
      <weakClassifiers>
        <_>
          <internalNodes>
            0 -1 11 1.0861895978450775e-01</internalNodes>
          <leafValues>
            -9.8745292425155640e-01 7.9710143804550171e-01</leafValues></_>
        <_>
          <internalNodes>
            0 -1 6 3.6349818110466003e-02</internalNodes>
          <leafValues>
            -9.5703858137130737e-01 8.1451928615570068e-01</leafValues></_>
        <_>
          <internalNodes>
            0 -1 14 1.0310822725296021e-01</internalNodes>
          <leafValues>
            -9.7898447513580322e-01 7.4777656793594360e-01</leafValues></_></weakClassifiers></_>
    <!-- stage 2 -->
    <_>
      <maxWeakCount>2</maxWeakCount>
      <stageThreshold>-7.6161265373229980e-01</stageThreshold>
      <weakClassifiers>
        <_>
          <internalNodes>
            0 -1 9 -4.8159532248973846e-02</internalNodes>
          <leafValues>
            6.5217393636703491e-01 -9.7490590810775757e-01</leafValues></_>
        <_>
          <internalNodes>
            0 -1 16 7.8705288469791412e-02</internalNodes>
          <leafValues>
            -9.8011761903762817e-01 2.1329320967197418e-01</leafValues></_></weakClassifiers></_>
    <!-- stage 3 -->
    <_>
      <maxWeakCount>4</maxWeakCount>
      <stageThreshold>-1.9369392395019531e+00</stageThreshold>
      <weakClassifiers>
        <_>
          <internalNodes>
            0 -1 3 -3.2070644199848175e-02</internalNodes>
          <leafValues>
            4.7586205601692200e-01 -9.6597355604171753e-01</leafValues></_>
        <_>
          <internalNodes>
            0 -1 20 -2.3750093579292297e-01</internalNodes>
          <leafValues>
            5.8982616662979126e-01 -9.4174706935882568e-01</leafValues></_>
        <_>
          <internalNodes>
            0 -1 19 1.9822552800178528e-02</internalNodes>
          <leafValues>
            -7.5268256664276123e-01 8.2114696502685547e-01</leafValues></_>
        <_>
          <internalNodes>
            0 -1 10 -3.5744354128837585e-02</internalNodes>
          <leafValues>
            7.2346389293670654e-01 -7.8464061021804810e-01</leafValues></_></weakClassifiers></_>
    <!-- stage 4 -->
    <_>
      <maxWeakCount>3</maxWeakCount>
      <stageThreshold>-1.3451836109161377e+00</stageThreshold>
      <weakClassifiers>
        <_>
          <internalNodes>
            0 -1 4 -3.2131887972354889e-02</internalNodes>
          <leafValues>
            4.4370859861373901e-01 -9.6837443113327026e-01</leafValues></_>
        <_>
          <internalNodes>
            0 -1 15 1.3721068203449249e-01</internalNodes>
          <leafValues>
            -8.3836227655410767e-01 7.8525322675704956e-01</leafValues></_>
        <_>
          <internalNodes>
            0 -1 24 1.7680320888757706e-02</internalNodes>
          <leafValues>
            -9.5052987337112427e-01 4.9709171056747437e-01</leafValues></_></weakClassifiers></_>
    <!-- stage 5 -->
    <_>
      <maxWeakCount>4</maxWeakCount>
      <stageThreshold>-2.1569037437438965e+00</stageThreshold>
      <weakClassifiers>
        <_>
          <internalNodes>
            0 -1 26 2.6304394006729126e-02</internalNodes>
          <leafValues>
            -9.4696968793869019e-01 2.4324324727058411e-01</leafValues></_>
        <_>
          <internalNodes>
            0 -1 21 5.2311103790998459e-03</internalNodes>
          <leafValues>
            -8.4606438875198364e-01 4.5065271854400635e-01</leafValues></_>
        <_>
          <internalNodes>
            0 -1 0 -4.2084623128175735e-02</internalNodes>
          <leafValues>
            5.3602302074432373e-01 -7.8448140621185303e-01</leafValues></_>
        <_>
          <internalNodes>
            0 -1 7 1.2546554207801819e-01</internalNodes>
          <leafValues>
            -9.4363266229629517e-01 4.2061179876327515e-01</leafValues></_></weakClassifiers></_>
    <!-- stage 6 -->
    <_>
      <maxWeakCount>4</maxWeakCount>
      <stageThreshold>-1.9910653829574585e+00</stageThreshold>
      <weakClassifiers>
        <_>
          <internalNodes>
            0 -1 5 -8.2586899399757385e-02</internalNodes>
          <leafValues>
            8.0645161867141724e-01 -9.0658682584762573e-01</leafValues></_>
        <_>
          <internalNodes>
            0 -1 18 6.0411887243390083e-03</internalNodes>
          <leafValues>
            -8.5877311229705811e-01 7.4340534210205078e-01</leafValues></_>
        <_>
          <internalNodes>
            0 -1 1 -4.9710407853126526e-02</internalNodes>
          <leafValues>
            6.9253373146057129e-01 -7.4030625820159912e-01</leafValues></_>
        <_>
          <internalNodes>
            0 -1 23 2.7159962337464094e-03</internalNodes>
          <leafValues>
            -7.8324490785598755e-01 5.1460081338882446e-01</leafValues></_></weakClassifiers></_>
    <!-- stage 7 -->
    <_>
      <maxWeakCount>5</maxWeakCount>
      <stageThreshold>-1.9995095729827881e+00</stageThreshold>
      <weakClassifiers>
        <_>
          <internalNodes>
            0 -1 8 5.4600361734628677e-02</internalNodes>
          <leafValues>
            -9.5604395866394043e-01 8.1081077456474304e-02</leafValues></_>
        <_>
          <internalNodes>
            0 -1 27 2.2199299186468124e-02</internalNodes>
          <leafValues>
            -8.6957901716232300e-01 3.4308826923370361e-01</leafValues></_>
        <_>
          <internalNodes>
            0 -1 17 -1.1359727010130882e-02</internalNodes>
          <leafValues>
            2.9105627536773682e-01 -8.9592456817626953e-01</leafValues></_>
        <_>
          <internalNodes>
            0 -1 22 -3.9700753986835480e-02</internalNodes>
          <leafValues>
            3.8013431429862976e-01 -8.2139605283737183e-01</leafValues></_>
        <_>
          <internalNodes>
            0 -1 2 -2.9378212057054043e-03</internalNodes>
          <leafValues>
            -9.6605473756790161e-01 3.5645329952239990e-01</leafValues></_></weakClassifiers></_></stages>
  <features>
    <_>
      <rects>
        <_>
          0 0 4 28 -1.</_>
        <_>
          2 0 2 28 2.</_></rects>
      <tilted>0</tilted></_>
    <_>
      <rects>
        <_>
          0 1 12 12 -1.</_>
        <_>
          4 1 4 12 3.</_></rects>
      <tilted>0</tilted></_>
    <_>
      <rects>
        <_>
          0 7 8 18 -1.</_>
        <_>
          0 13 8 6 3.</_></rects>
      <tilted>0</tilted></_>
    <_>
      <rects>
        <_>
          0 15 4 13 -1.</_>
        <_>
          2 15 2 13 2.</_></rects>
      <tilted>0</tilted></_>
    <_>
      <rects>
        <_>
          0 15 4 14 -1.</_>
        <_>
          2 15 2 14 2.</_></rects>
      <tilted>0</tilted></_>
    <_>
      <rects>
        <_>
          1 2 6 18 -1.</_>
        <_>
          4 2 3 18 2.</_></rects>
      <tilted>0</tilted></_>
    <_>
      <rects>
        <_>
          1 26 26 4 -1.</_>
        <_>
          1 28 26 2 2.</_></rects>
      <tilted>0</tilted></_>
    <_>
      <rects>
        <_>
          2 0 22 26 -1.</_>
        <_>
          2 0 11 13 2.</_>
        <_>
          13 13 11 13 2.</_></rects>
      <tilted>0</tilted></_>
    <_>
      <rects>
        <_>
          2 26 25 4 -1.</_>
        <_>
          2 28 25 2 2.</_></rects>
      <tilted>0</tilted></_>
    <_>
      <rects>
        <_>
          4 0 24 4 -1.</_>
        <_>
          4 2 24 2 2.</_></rects>
      <tilted>0</tilted></_>
    <_>
      <rects>
        <_>
          8 0 16 4 -1.</_>
        <_>
          8 2 16 2 2.</_></rects>
      <tilted>0</tilted></_>
    <_>
      <rects>
        <_>
          9 12 15 5 -1.</_>
        <_>
          14 12 5 5 3.</_></rects>
      <tilted>0</tilted></_>
    <_>
      <rects>
        <_>
          9 14 8 2 -1.</_>
        <_>
          13 14 4 2 2.</_></rects>
      <tilted>0</tilted></_>
    <_>
      <rects>
        <_>
          11 11 12 6 -1.</_>
        <_>
          15 11 4 6 3.</_></rects>
      <tilted>0</tilted></_>
    <_>
      <rects>
        <_>
          11 11 12 7 -1.</_>
        <_>
          15 11 4 7 3.</_></rects>
      <tilted>0</tilted></_>
    <_>
      <rects>
        <_>
          13 18 9 8 -1.</_>
        <_>
          16 18 3 8 3.</_></rects>
      <tilted>0</tilted></_>
    <_>
      <rects>
        <_>
          14 5 15 12 -1.</_>
        <_>
          14 11 15 6 2.</_></rects>
      <tilted>0</tilted></_>
    <_>
      <rects>
        <_>
          14 13 5 12 -1.</_>
        <_>
          14 17 5 4 3.</_></rects>
      <tilted>0</tilted></_>
    <_>
      <rects>
        <_>
          14 14 4 4 -1.</_>
        <_>
          14 14 2 2 2.</_>
        <_>
          16 16 2 2 2.</_></rects>
      <tilted>0</tilted></_>
    <_>
      <rects>
        <_>
          14 24 6 3 -1.</_>
        <_>
          16 24 2 3 3.</_></rects>
      <tilted>0</tilted></_>
    <_>
      <rects>
        <_>
          15 10 15 17 -1.</_>
        <_>
          20 10 5 17 3.</_></rects>
      <tilted>0</tilted></_>
    <_>
      <rects>
        <_>
          15 18 3 3 -1.</_>
        <_>
          16 18 1 3 3.</_></rects>
      <tilted>0</tilted></_>
    <_>
      <rects>
        <_>
          15 18 15 3 -1.</_>
        <_>
          20 18 5 3 3.</_></rects>
      <tilted>0</tilted></_>
    <_>
      <rects>
        <_>
          15 19 3 3 -1.</_>
        <_>
          16 19 1 3 3.</_></rects>
      <tilted>0</tilted></_>
    <_>
      <rects>
        <_>
          17 10 4 9 -1.</_>
        <_>
          17 13 4 3 3.</_></rects>
      <tilted>0</tilted></_>
    <_>
      <rects>
        <_>
          17 11 12 13 -1.</_>
        <_>
          21 11 4 13 3.</_></rects>
      <tilted>0</tilted></_>
    <_>
      <rects>
        <_>
          26 2 4 10 -1.</_>
        <_>
          28 2 2 10 2.</_></rects>
      <tilted>0</tilted></_>
    <_>
      <rects>
        <_>
          26 3 4 11 -1.</_>
        <_>
          28 3 2 11 2.</_></rects>
      <tilted>0</tilted></_></features></cascade>
</opencv_storage>
