<?xml version="1.0"?>
<opencv_storage>
<cascade>
  <stageType>BOOST</stageType>
  <featureType>HAAR</featureType>
  <height>38</height>
  <width>18</width>
  <stageParams>
    <boostType>GAB</boostType>
    <minHitRate>9.9500000476837158e-01</minHitRate>
    <maxFalseAlarm>5.0000000000000000e-01</maxFalseAlarm>
    <weightTrimRate>9.4999998807907104e-01</weightTrimRate>
    <maxDepth>1</maxDepth>
    <maxWeakCount>100</maxWeakCount></stageParams>
  <featureParams>
    <maxCatCount>0</maxCatCount>
    <featSize>1</featSize>
    <mode>BASIC</mode></featureParams>
  <stageNum>9</stageNum>
  <stages>
    <!-- stage 0 -->
    <_>
      <maxWeakCount>2</maxWeakCount>
      <stageThreshold>-1.8761803209781647e-01</stageThreshold>
      <weakClassifiers>
        <_>
          <internalNodes>
            0 -1 5 2.4388998746871948e-01</internalNodes>
          <leafValues>
            -9.8599439859390259e-01 8.3529412746429443e-01</leafValues></_>
        <_>
          <internalNodes>
            0 -1 7 1.1488702148199081e-01</internalNodes>
          <leafValues>
            -9.8720061779022217e-01 7.9837638139724731e-01</leafValues></_></weakClassifiers></_>
    <!-- stage 1 -->
    <_>
      <maxWeakCount>2</maxWeakCount>
      <stageThreshold>-5.5889856815338135e-01</stageThreshold>
      <weakClassifiers>
        <_>
          <internalNodes>
            0 -1 14 -6.4516678452491760e-02</internalNodes>
          <leafValues>
            4.8148149251937866e-01 -9.8861211538314819e-01</leafValues></_>
        <_>
          <internalNodes>
            0 -1 15 -4.8860587179660797e-02</internalNodes>
          <leafValues>
            4.2971351742744446e-01 -9.9312758445739746e-01</leafValues></_></weakClassifiers></_>
    <!-- stage 2 -->
    <_>
      <maxWeakCount>4</maxWeakCount>
      <stageThreshold>-2.0862371921539307e+00</stageThreshold>
      <weakClassifiers>
        <_>
          <internalNodes>
            0 -1 2 3.2243752479553223e-01</internalNodes>
          <leafValues>
            -9.2167454957962036e-01 8.7500000000000000e-01</leafValues></_>
        <_>
          <internalNodes>
            0 -1 3 2.1749821305274963e-01</internalNodes>
          <leafValues>
            -7.7219164371490479e-01 9.0256887674331665e-01</leafValues></_>
        <_>
          <internalNodes>
            0 -1 23 -7.7919112518429756e-03</internalNodes>
          <leafValues>
            5.4982179403305054e-01 -8.9201706647872925e-01</leafValues></_>
        <_>
          <internalNodes>
            0 -1 4 -1.1880861222743988e-01</internalNodes>
          <leafValues>
            4.9964603781700134e-01 -9.7640091180801392e-01</leafValues></_></weakClassifiers></_>
    <!-- stage 3 -->
    <_>
      <maxWeakCount>3</maxWeakCount>
      <stageThreshold>-1.6945481300354004e+00</stageThreshold>
      <weakClassifiers>
        <_>
          <internalNodes>
            0 -1 20 2.9900461435317993e-02</internalNodes>
          <leafValues>
            -9.3415635824203491e-01 4.5454546809196472e-01</leafValues></_>
        <_>
          <internalNodes>
            0 -1 8 3.2793726772069931e-02</internalNodes>
          <leafValues>
            -9.6060019731521606e-01 1.4552171528339386e-01</leafValues></_>
        <_>
          <internalNodes>
            0 -1 17 -5.7222656905651093e-02</internalNodes>
          <leafValues>
            4.0755397081375122e-01 -9.0591347217559814e-01</leafValues></_></weakClassifiers></_>
    <!-- stage 4 -->
    <_>
      <maxWeakCount>3</maxWeakCount>
      <stageThreshold>-1.7301338911056519e+00</stageThreshold>
      <weakClassifiers>
        <_>
          <internalNodes>
            0 -1 25 1.0763141512870789e-01</internalNodes>
          <leafValues>
            -9.3530625104904175e-01 3.6666667461395264e-01</leafValues></_>
        <_>
          <internalNodes>
            0 -1 24 -5.0317477434873581e-03</internalNodes>
          <leafValues>
            8.3280429244041443e-02 -9.4113093614578247e-01</leafValues></_>
        <_>
          <internalNodes>
            0 -1 16 1.4014496468007565e-02</internalNodes>
          <leafValues>
            -8.7810802459716797e-01 3.5495761036872864e-01</leafValues></_></weakClassifiers></_>
    <!-- stage 5 -->
    <_>
      <maxWeakCount>3</maxWeakCount>
      <stageThreshold>-1.4615770578384399e+00</stageThreshold>
      <weakClassifiers>
        <_>
          <internalNodes>
            0 -1 13 -1.6337800025939941e-01</internalNodes>
          <leafValues>
            1.2195122241973877e-01 -9.4129979610443115e-01</leafValues></_>
        <_>
          <internalNodes>
            0 -1 9 2.2399134933948517e-02</internalNodes>
          <leafValues>
            -7.9718798398971558e-01 4.2486226558685303e-01</leafValues></_>
        <_>
          <internalNodes>
            0 -1 1 -7.0115722715854645e-02</internalNodes>
          <leafValues>
            -1. 2.7691072225570679e-01</leafValues></_></weakClassifiers></_>
    <!-- stage 6 -->
    <_>
      <maxWeakCount>3</maxWeakCount>
      <stageThreshold>-1.8141469955444336e+00</stageThreshold>
      <weakClassifiers>
        <_>
          <internalNodes>
            0 -1 13 -1.4124217629432678e-01</internalNodes>
          <leafValues>
            -9.5238097012042999e-02 -9.5529919862747192e-01</leafValues></_>
        <_>
          <internalNodes>
            0 -1 21 2.3935026547405869e-05</internalNodes>
          <leafValues>
            -9.1642284393310547e-01 2.5798212736845016e-02</leafValues></_>
        <_>
          <internalNodes>
            0 -1 22 6.5816473215818405e-03</internalNodes>
          <leafValues>
            -8.8464593887329102e-01 2.7911370992660522e-01</leafValues></_></weakClassifiers></_>
    <!-- stage 7 -->
    <_>
      <maxWeakCount>3</maxWeakCount>
      <stageThreshold>-1.9882521629333496e+00</stageThreshold>
      <weakClassifiers>
        <_>
          <internalNodes>
            0 -1 10 1.9632127135992050e-02</internalNodes>
          <leafValues>
            -9.5882350206375122e-01 -2.1568627655506134e-01</leafValues></_>
        <_>
          <internalNodes>
            0 -1 12 -1.1464029550552368e-01</internalNodes>
          <leafValues>
            2.3966994881629944e-01 -8.0936974287033081e-01</leafValues></_>
        <_>
          <internalNodes>
            0 -1 26 1.1448539589764550e-04</internalNodes>
          <leafValues>
            -9.6319609880447388e-01 2.9108256101608276e-01</leafValues></_></weakClassifiers></_>
    <!-- stage 8 -->
    <_>
      <maxWeakCount>5</maxWeakCount>
      <stageThreshold>-1.6198571920394897e+00</stageThreshold>
      <weakClassifiers>
        <_>
          <internalNodes>
            0 -1 11 9.8925799131393433e-02</internalNodes>
          <leafValues>
            -9.1403627395629883e-01 1.</leafValues></_>
        <_>
          <internalNodes>
            0 -1 0 4.9284651875495911e-02</internalNodes>
          <leafValues>
            -7.5894397497177124e-01 5.4105716943740845e-01</leafValues></_>
        <_>
          <internalNodes>
            0 -1 6 1.9880726933479309e-02</internalNodes>
          <leafValues>
            -8.6198848485946655e-01 3.7547171115875244e-01</leafValues></_>
        <_>
          <internalNodes>
            0 -1 19 2.8673359192907810e-03</internalNodes>
          <leafValues>
            -8.5041129589080811e-01 4.0755614638328552e-01</leafValues></_>
        <_>
          <internalNodes>
            0 -1 18 -2.2100795060396194e-02</internalNodes>
          <leafValues>
            5.2806258201599121e-01 -6.9082736968994141e-01</leafValues></_></weakClassifiers></_></stages>
  <features>
    <_>
      <rects>
        <_>
          0 0 16 6 -1.</_>
        <_>
          0 0 8 3 2.</_>
        <_>
          8 3 8 3 2.</_></rects>
      <tilted>0</tilted></_>
    <_>
      <rects>
        <_>
          0 1 12 27 -1.</_>
        <_>
          0 10 12 9 3.</_></rects>
      <tilted>0</tilted></_>
    <_>
      <rects>
        <_>
          0 21 15 14 -1.</_>
        <_>
          5 21 5 14 3.</_></rects>
      <tilted>0</tilted></_>
    <_>
      <rects>
        <_>
          2 0 13 15 -1.</_>
        <_>
          2 5 13 5 3.</_></rects>
      <tilted>0</tilted></_>
    <_>
      <rects>
        <_>
          2 6 11 15 -1.</_>
        <_>
          2 11 11 5 3.</_></rects>
      <tilted>0</tilted></_>
    <_>
      <rects>
        <_>
          2 9 15 15 -1.</_>
        <_>
          7 9 5 15 3.</_></rects>
      <tilted>0</tilted></_>
    <_>
      <rects>
        <_>
          2 16 8 2 -1.</_>
        <_>
          6 16 4 2 2.</_></rects>
      <tilted>0</tilted></_>
    <_>
      <rects>
        <_>
          2 17 15 6 -1.</_>
        <_>
          7 17 5 6 3.</_></rects>
      <tilted>0</tilted></_>
    <_>
      <rects>
        <_>
          3 9 6 9 -1.</_>
        <_>
          6 9 3 9 2.</_></rects>
      <tilted>0</tilted></_>
    <_>
      <rects>
        <_>
          3 17 6 6 -1.</_>
        <_>
          5 17 2 6 3.</_></rects>
      <tilted>0</tilted></_>
    <_>
      <rects>
        <_>
          3 18 6 5 -1.</_>
        <_>
          5 18 2 5 3.</_></rects>
      <tilted>0</tilted></_>
    <_>
      <rects>
        <_>
          3 23 9 8 -1.</_>
        <_>
          3 27 9 4 2.</_></rects>
      <tilted>0</tilted></_>
    <_>
      <rects>
        <_>
          4 1 10 34 -1.</_>
        <_>
          4 1 5 17 2.</_>
        <_>
          9 18 5 17 2.</_></rects>
      <tilted>0</tilted></_>
    <_>
      <rects>
        <_>
          4 2 10 34 -1.</_>
        <_>
          4 2 5 17 2.</_>
        <_>
          9 19 5 17 2.</_></rects>
      <tilted>0</tilted></_>
    <_>
      <rects>
        <_>
          4 9 9 9 -1.</_>
        <_>
          4 12 9 3 3.</_></rects>
      <tilted>0</tilted></_>
    <_>
      <rects>
        <_>
          4 21 9 9 -1.</_>
        <_>
          4 24 9 3 3.</_></rects>
      <tilted>0</tilted></_>
    <_>
      <rects>
        <_>
          6 0 4 8 -1.</_>
        <_>
          6 4 4 4 2.</_></rects>
      <tilted>0</tilted></_>
    <_>
      <rects>
        <_>
          6 21 9 9 -1.</_>
        <_>
          6 24 9 3 3.</_></rects>
      <tilted>0</tilted></_>
    <_>
      <rects>
        <_>
          7 23 5 6 -1.</_>
        <_>
          7 25 5 2 3.</_></rects>
      <tilted>0</tilted></_>
    <_>
      <rects>
        <_>
          7 28 6 3 -1.</_>
        <_>
          9 28 2 3 3.</_></rects>
      <tilted>0</tilted></_>
    <_>
      <rects>
        <_>
          7 32 8 6 -1.</_>
        <_>
          7 32 4 3 2.</_>
        <_>
          11 35 4 3 2.</_></rects>
      <tilted>0</tilted></_>
    <_>
      <rects>
        <_>
          9 19 1 4 -1.</_>
        <_>
          9 21 1 2 2.</_></rects>
      <tilted>0</tilted></_>
    <_>
      <rects>
        <_>
          9 19 6 2 -1.</_>
        <_>
          11 19 2 2 3.</_></rects>
      <tilted>0</tilted></_>
    <_>
      <rects>
        <_>
          9 30 2 8 -1.</_>
        <_>
          9 34 2 4 2.</_></rects>
      <tilted>0</tilted></_>
    <_>
      <rects>
        <_>
          9 31 2 6 -1.</_>
        <_>
          9 34 2 3 2.</_></rects>
      <tilted>0</tilted></_>
    <_>
      <rects>
        <_>
          12 4 6 34 -1.</_>
        <_>
          12 4 3 17 2.</_>
        <_>
          15 21 3 17 2.</_></rects>
      <tilted>0</tilted></_>
    <_>
      <rects>
        <_>
          14 22 4 1 -1.</_>
        <_>
          16 22 2 1 2.</_></rects>
      <tilted>0</tilted></_></features></cascade>
</opencv_storage>
