<?xml version="1.0"?>
<opencv_storage>
<cascade>
  <stageType>BOOST</stageType>
  <featureType>LBP</featureType>
  <height>50</height>
  <width>50</width>
  <stageParams>
    <boostType>GAB</boostType>
    <minHitRate>9.9500000476837158e-01</minHitRate>
    <maxFalseAlarm>5.0000000000000000e-01</maxFalseAlarm>
    <weightTrimRate>9.4999999999999996e-01</weightTrimRate>
    <maxDepth>1</maxDepth>
    <maxWeakCount>100</maxWeakCount></stageParams>
  <featureParams>
    <maxCatCount>256</maxCatCount>
    <featSize>1</featSize></featureParams>
  <stageNum>11</stageNum>
  <stages>
    <!-- stage 0 -->
    <_>
      <maxWeakCount>2</maxWeakCount>
      <stageThreshold>-1.5056604146957397e-01</stageThreshold>
      <weakClassifiers>
        <_>
          <internalNodes>
            0 -1 9 -549203714 -210566815 268468441 -112000989 -603871094
            -805257216 622763 -13425</internalNodes>
          <leafValues>
            -9.7383177280426025e-01 8.1395345926284790e-01</leafValues></_>
        <_>
          <internalNodes>
            0 -1 22 -245902882 -750710719 32836 -652787710 -1065229622
            318832773 -1929188981 -72619009</internalNodes>
          <leafValues>
            -9.6451956033706665e-01 8.4277534484863281e-01</leafValues></_></weakClassifiers></_>
    <!-- stage 1 -->
    <_>
      <maxWeakCount>2</maxWeakCount>
      <stageThreshold>-2.0602245628833771e-01</stageThreshold>
      <weakClassifiers>
        <_>
          <internalNodes>
            0 -1 7 -606754305 -607452783 285212935 -44461987 -779450197
            -796360560 2057931211 -4345105</internalNodes>
          <leafValues>
            -9.4128441810607910e-01 8.1512606143951416e-01</leafValues></_>
        <_>
          <internalNodes>
            0 -1 18 -586819366 -251531111 -1878982270 -674786485
            -1996193322 -1609990014 -763262577 -137368597</internalNodes>
          <leafValues>
            -9.6026766300201416e-01 7.3526197671890259e-01</leafValues></_></weakClassifiers></_>
    <!-- stage 2 -->
    <_>
      <maxWeakCount>2</maxWeakCount>
      <stageThreshold>-2.0530490577220917e-01</stageThreshold>
      <weakClassifiers>
        <_>
          <internalNodes>
            0 -1 1 -4097 -67567626 -3 -1 -536635189 1593967245
            -796025973 -281665</internalNodes>
          <leafValues>
            -9.0763765573501587e-01 9.4059407711029053e-01</leafValues></_>
        <_>
          <internalNodes>
            0 -1 8 -1005721713 -440205009 -718207727 -720920413
            -2137335553 1222120066 -473267205 -11273297</internalNodes>
          <leafValues>
            -9.8872607946395874e-01 7.0233273506164551e-01</leafValues></_></weakClassifiers></_>
    <!-- stage 3 -->
    <_>
      <maxWeakCount>3</maxWeakCount>
      <stageThreshold>-1.0768452882766724e+00</stageThreshold>
      <weakClassifiers>
        <_>
          <internalNodes>
            0 -1 24 -69208577 1569046931 -1056931837 1996988547
            -803618325 176193539 -1064516710 -138691909</internalNodes>
          <leafValues>
            -9.1681736707687378e-01 8.1981980800628662e-01</leafValues></_>
        <_>
          <internalNodes>
            0 -1 12 285217277 -1857466127 -788180771 1024788501
            -1300123394 -1459052484 -909997937 -1181220728</internalNodes>
          <leafValues>
            -8.7953358888626099e-01 7.9523503780364990e-01</leafValues></_>
        <_>
          <internalNodes>
            0 -1 19 2038292414 -707685819 1476612289 -553418166
            -905324049 -1652492277 -714944850 -1074871109</internalNodes>
          <leafValues>
            -9.5526295900344849e-01 7.3666888475418091e-01</leafValues></_></weakClassifiers></_>
    <!-- stage 4 -->
    <_>
      <maxWeakCount>3</maxWeakCount>
      <stageThreshold>-1.1205810308456421e+00</stageThreshold>
      <weakClassifiers>
        <_>
          <internalNodes>
            0 -1 14 -168428545 -238976629 -1323728693 -8677341
            -2134334069 1372110858 -340031093 -6570321</internalNodes>
          <leafValues>
            -9.0681004524230957e-01 8.4905660152435303e-01</leafValues></_>
        <_>
          <internalNodes>
            0 -1 10 1343576051 -707063479 -2013199403 -15613947
            -2001671441 -56999806 -1702328081 -1383429880</internalNodes>
          <leafValues>
            -8.8953846693038940e-01 7.8387022018432617e-01</leafValues></_>
        <_>
          <internalNodes>
            0 -1 6 -707587409 -1118323251 152113849 -673890101 -94543457
            -276573768 -611650691 -35012961</internalNodes>
          <leafValues>
            -9.9235111474990845e-01 6.7576754093170166e-01</leafValues></_></weakClassifiers></_>
    <!-- stage 5 -->
    <_>
      <maxWeakCount>3</maxWeakCount>
      <stageThreshold>-1.1140700578689575e+00</stageThreshold>
      <weakClassifiers>
        <_>
          <internalNodes>
            0 -1 5 -1224478243 -140967911 -1257926273 -575335407
            -133375527 -1143422769 -393505873 -7436147</internalNodes>
          <leafValues>
            -8.8752198219299316e-01 9.3684208393096924e-01</leafValues></_>
        <_>
          <internalNodes>
            0 -1 13 -551288833 -404150206 -536639423 -875445821
            -108428613 -1982654302 -83758613 -271591267</internalNodes>
          <leafValues>
            -8.8859772682189941e-01 7.4444574117660522e-01</leafValues></_>
        <_>
          <internalNodes>
            0 -1 2 -246942726 -241835523 536903685 -744766073 1405408646
            2023344512 -383790081 -5526786</internalNodes>
          <leafValues>
            -9.7099381685256958e-01 6.6622596979141235e-01</leafValues></_></weakClassifiers></_>
    <!-- stage 6 -->
    <_>
      <maxWeakCount>2</maxWeakCount>
      <stageThreshold>-3.7189081311225891e-01</stageThreshold>
      <weakClassifiers>
        <_>
          <internalNodes>
            0 -1 25 -570435873 470647247 -1056964352 1834714701
            -666703654 -1593597949 -802583094 -67110673</internalNodes>
          <leafValues>
            -9.3333333730697632e-01 7.0967739820480347e-01</leafValues></_>
        <_>
          <internalNodes>
            0 -1 21 -212869141 -111552421 -1815537525 -175165805
            -1070366449 1227655172 -611676199 -51780865</internalNodes>
          <leafValues>
            -9.7739076614379883e-01 5.6144249439239502e-01</leafValues></_></weakClassifiers></_>
    <!-- stage 7 -->
    <_>
      <maxWeakCount>2</maxWeakCount>
      <stageThreshold>-1.9151389598846436e-01</stageThreshold>
      <weakClassifiers>
        <_>
          <internalNodes>
            0 -1 16 -444598341 -106984165 1426161743 -772291517
            -708319073 -920485799 -102317581 -73405697</internalNodes>
          <leafValues>
            -9.0958410501480103e-01 7.8378379344940186e-01</leafValues></_>
        <_>
          <internalNodes>
            0 -1 17 1398110167 -573450943 285217149 -36857963
            -1115584263 -1781368 -1970429782 -1075278675</internalNodes>
          <leafValues>
            -9.2123717069625854e-01 7.1807020902633667e-01</leafValues></_></weakClassifiers></_>
    <!-- stage 8 -->
    <_>
      <maxWeakCount>3</maxWeakCount>
      <stageThreshold>-1.0741111040115356e+00</stageThreshold>
      <weakClassifiers>
        <_>
          <internalNodes>
            0 -1 20 -250615073 1891891592 -250127547 -418180529
            -488906017 -731280883 -389501489 -67118405</internalNodes>
          <leafValues>
            -9.2236596345901489e-01 6.7479676008224487e-01</leafValues></_>
        <_>
          <internalNodes>
            0 -1 11 -36845569 1867260331 -1491791529 -746090121
            -382337381 -257903893 -375297575 -100680769</internalNodes>
          <leafValues>
            -8.5962700843811035e-01 7.6731944084167480e-01</leafValues></_>
        <_>
          <internalNodes>
            0 -1 4 -1408193313 -1390071463 673226239 936411199 516549119
            -338071165 -490435077 -122977917</internalNodes>
          <leafValues>
            -9.1906452178955078e-01 7.1997070312500000e-01</leafValues></_></weakClassifiers></_>
    <!-- stage 9 -->
    <_>
      <maxWeakCount>3</maxWeakCount>
      <stageThreshold>-1.1647715568542480e+00</stageThreshold>
      <weakClassifiers>
        <_>
          <internalNodes>
            0 -1 15 -103091201 -12398073 -720250539 -49834095 -506727205
            -1012703230 -101862757 -1378898969</internalNodes>
          <leafValues>
            -9.0270268917083740e-01 7.7981650829315186e-01</leafValues></_>
        <_>
          <internalNodes>
            0 -1 23 -77072901 -1643816635 -754445907 -437921201
            -1023226980 834765605 -356128565 -68822077</internalNodes>
          <leafValues>
            -9.2020756006240845e-01 7.3690164089202881e-01</leafValues></_>
        <_>
          <internalNodes>
            0 -1 3 -297598977 -712408806 -515521518 -1014898650
            1677873003 -368897278 1369570587 -805307653</internalNodes>
          <leafValues>
            -9.5457011461257935e-01 6.5813869237899780e-01</leafValues></_></weakClassifiers></_>
    <!-- stage 10 -->
    <_>
      <maxWeakCount>1</maxWeakCount>
      <stageThreshold>1.</stageThreshold>
      <weakClassifiers>
        <_>
          <internalNodes>
            0 -1 0 268435456 65537 0 65541 0 0 0 262144</internalNodes>
          <leafValues>
            -1. 1.</leafValues></_></weakClassifiers></_></stages>
  <features>
    <_>
      <rect>
        0 0 2 13</rect></_>
    <_>
      <rect>
        0 22 6 8</rect></_>
    <_>
      <rect>
        1 5 10 15</rect></_>
    <_>
      <rect>
        1 13 4 12</rect></_>
    <_>
      <rect>
        4 16 11 6</rect></_>
    <_>
      <rect>
        6 0 12 3</rect></_>
    <_>
      <rect>
        6 5 13 11</rect></_>
    <_>
      <rect>
        7 6 12 10</rect></_>
    <_>
      <rect>
        7 16 5 5</rect></_>
    <_>
      <rect>
        7 18 6 8</rect></_>
    <_>
      <rect>
        8 0 12 3</rect></_>
    <_>
      <rect>
        8 14 4 5</rect></_>
    <_>
      <rect>
        10 44 10 2</rect></_>
    <_>
      <rect>
        11 5 4 6</rect></_>
    <_>
      <rect>
        11 14 9 11</rect></_>
    <_>
      <rect>
        14 0 4 6</rect></_>
    <_>
      <rect>
        14 4 4 9</rect></_>
    <_>
      <rect>
        15 35 7 3</rect></_>
    <_>
      <rect>
        17 4 5 7</rect></_>
    <_>
      <rect>
        21 7 8 13</rect></_>
    <_>
      <rect>
        23 5 4 8</rect></_>
    <_>
      <rect>
        23 8 7 7</rect></_>
    <_>
      <rect>
        24 20 6 9</rect></_>
    <_>
      <rect>
        33 24 4 7</rect></_>
    <_>
      <rect>
        35 7 5 14</rect></_>
    <_>
      <rect>
        35 11 5 13</rect></_></features></cascade>
</opencv_storage>
